{
    "model": {
        "LayerCount": 4,
        "LayerSizes": [
            9,
            270,
            270,
            9
        ],
        "Layers": [
            {
                "ID": 0,
                "IN": 9,
                "OUT": 270,
                "weights": [
                    [
                        -0.09880436211824417,
                        0.05704822391271591,
                        0.04226594790816307,
                        -0.3579877018928528,
                        -0.15786615014076233,
                        -0.27253618836402893,
                        0.2695814371109009,
                        -0.2214576005935669,
                        -0.20408718287944794
                    ],
                    [
                        0.15567296743392944,
                        -0.2338564097881317,
                        -0.38284075260162354,
                        -0.07769806683063507,
                        0.03621404245495796,
                        0.034563057124614716,
                        0.10484396666288376,
                        -0.17285272479057312,
                        -0.009619126096367836
                    ],
                    [
                        -0.23946690559387207,
                        -0.17025673389434814,
                        -0.2539113461971283,
                        -0.0707254707813263,
                        -0.2985648810863495,
                        -0.18697285652160645,
                        0.12952053546905518,
                        -0.2608219087123871,
                        0.09573057293891907
                    ],
                    [
                        0.23854702711105347,
                        0.07876179367303848,
                        0.11065185815095901,
                        0.010488530620932579,
                        -0.4594462811946869,
                        -0.12611377239227295,
                        -0.13918104767799377,
                        -0.06238506734371185,
                        -0.36010873317718506
                    ],
                    [
                        -0.19591757655143738,
                        -0.38002175092697144,
                        0.11194044351577759,
                        0.00912895891815424,
                        0.1132378801703453,
                        -0.17962656915187836,
                        -0.3567826449871063,
                        0.22181755304336548,
                        -0.13492806255817413
                    ],
                    [
                        -0.07009474188089371,
                        0.06333944946527481,
                        -0.04896192252635956,
                        -0.25866761803627014,
                        -0.310298353433609,
                        -0.10058104991912842,
                        0.03306826576590538,
                        -0.33765608072280884,
                        0.26400744915008545
                    ],
                    [
                        -0.35903865098953247,
                        0.09995011985301971,
                        -0.47121304273605347,
                        -0.30590584874153137,
                        -0.3859347999095917,
                        -0.2216111570596695,
                        0.26426026225090027,
                        -0.027656057849526405,
                        0.22571592032909393
                    ],
                    [
                        0.09420964866876602,
                        -0.19138601422309875,
                        -0.12710793316364288,
                        -0.054146863520145416,
                        0.15364058315753937,
                        -0.005453615449368954,
                        -1.8859262466430664,
                        0.08219670504331589,
                        0.413621187210083
                    ],
                    [
                        -0.33333519101142883,
                        0.20165850222110748,
                        -0.45085757970809937,
                        -0.29623135924339294,
                        0.026891330257058144,
                        0.2470080554485321,
                        -0.3447408378124237,
                        0.08376739919185638,
                        -0.13919943571090698
                    ],
                    [
                        0.059897541999816895,
                        -0.2770792841911316,
                        -0.05898502469062805,
                        -0.03613278269767761,
                        -0.18994984030723572,
                        0.0013462603092193604,
                        -0.07160910964012146,
                        0.07769307494163513,
                        -0.1165497750043869
                    ],
                    [
                        -0.0016306400066241622,
                        -0.5784032940864563,
                        0.1638675034046173,
                        -0.24803398549556732,
                        0.08177035301923752,
                        -0.16109760105609894,
                        0.0798974484205246,
                        0.016482466831803322,
                        -0.17734871804714203
                    ],
                    [
                        0.06836593151092529,
                        -0.3973197638988495,
                        -0.08620845526456833,
                        -0.23849298059940338,
                        0.08942927420139313,
                        -0.3197390139102936,
                        -0.05482340604066849,
                        0.07333401590585709,
                        0.19082556664943695
                    ],
                    [
                        -0.28652840852737427,
                        -0.04276987910270691,
                        0.178329199552536,
                        -0.1857062578201294,
                        -0.13917598128318787,
                        -0.11796848475933075,
                        0.12312373518943787,
                        -0.04985383152961731,
                        -0.09762434661388397
                    ],
                    [
                        -0.17891287803649902,
                        0.16249728202819824,
                        0.11673486232757568,
                        -0.2195776402950287,
                        -0.28481316566467285,
                        -0.21800605952739716,
                        -0.07697030901908875,
                        -0.267453670501709,
                        -0.2461538016796112
                    ],
                    [
                        -0.36906835436820984,
                        -0.20535123348236084,
                        0.061648178845644,
                        -0.1755387932062149,
                        -0.2514156699180603,
                        0.2575814723968506,
                        -0.02304072305560112,
                        -0.06360804289579391,
                        0.01470851618796587
                    ],
                    [
                        -0.09262863546609879,
                        0.08330889791250229,
                        -0.4214099943637848,
                        -0.061482809484004974,
                        0.17623752355575562,
                        0.21159614622592926,
                        -0.09878703951835632,
                        -0.3173818588256836,
                        -0.5900967121124268
                    ],
                    [
                        -0.15657669305801392,
                        0.01529719028621912,
                        0.15965020656585693,
                        -0.3218141794204712,
                        -0.14943355321884155,
                        -0.02401372790336609,
                        -0.0536067858338356,
                        0.06527956575155258,
                        -0.1772497296333313
                    ],
                    [
                        -0.2538257837295532,
                        0.08448119461536407,
                        0.1155812218785286,
                        0.019961996003985405,
                        -0.4305408298969269,
                        0.21306224167346954,
                        -0.8251479268074036,
                        -0.33927634358406067,
                        0.19898481667041779
                    ],
                    [
                        -0.04833858087658882,
                        -0.38569530844688416,
                        -0.027998685836791992,
                        0.18442833423614502,
                        0.04873678460717201,
                        -0.23206976056098938,
                        -0.25710704922676086,
                        -0.20769059658050537,
                        0.14112548530101776
                    ],
                    [
                        -0.04398544132709503,
                        -0.511626124382019,
                        0.20209935307502747,
                        -0.04834909364581108,
                        0.028066175058484077,
                        -0.24419713020324707,
                        0.304878830909729,
                        -0.5084375739097595,
                        0.039604343473911285
                    ],
                    [
                        0.17719945311546326,
                        -0.16330385208129883,
                        -0.21002404391765594,
                        0.08973541855812073,
                        -0.1916484534740448,
                        -0.05056676268577576,
                        -0.11708474159240723,
                        -0.2612539529800415,
                        -0.019985437393188477
                    ],
                    [
                        0.03135131299495697,
                        -0.14420443773269653,
                        -0.010001204907894135,
                        0.15886633098125458,
                        -0.03210859373211861,
                        -0.2090299278497696,
                        -0.3330509066581726,
                        0.09637398272752762,
                        -0.27168700098991394
                    ],
                    [
                        -0.004303455352783203,
                        -0.04385771229863167,
                        -0.2074432671070099,
                        -0.26163381338119507,
                        -0.03376145660877228,
                        0.18603064119815826,
                        -0.34373417496681213,
                        -0.010233374312520027,
                        -0.04735531285405159
                    ],
                    [
                        0.0026617473922669888,
                        0.37367066740989685,
                        -0.5275669693946838,
                        -0.39845752716064453,
                        -0.3915204107761383,
                        -0.3630312383174896,
                        -0.035085152834653854,
                        0.21562893688678741,
                        0.12345776706933975
                    ],
                    [
                        0.5929511189460754,
                        0.19591312110424042,
                        0.35771840810775757,
                        -0.5766600370407104,
                        -0.4615424573421478,
                        -0.35951295495033264,
                        0.9531687498092651,
                        0.3192943334579468,
                        -1.9561893939971924
                    ],
                    [
                        0.1664927750825882,
                        -0.1569075882434845,
                        0.14651460945606232,
                        -0.009434607811272144,
                        -0.4054340720176697,
                        -0.2503907382488251,
                        -0.23285087943077087,
                        0.1368698626756668,
                        -0.32203155755996704
                    ],
                    [
                        -0.17829366028308868,
                        -0.4645496606826782,
                        -0.40413275361061096,
                        -0.02016548626124859,
                        -0.08458791673183441,
                        -0.263211190700531,
                        0.23197804391384125,
                        0.18235813081264496,
                        -0.07775810360908508
                    ],
                    [
                        0.120332270860672,
                        0.06591321527957916,
                        -0.46494802832603455,
                        -0.2242453545331955,
                        -0.039799947291612625,
                        -0.07063760608434677,
                        -0.4739520251750946,
                        0.2620265781879425,
                        -0.05398701876401901
                    ],
                    [
                        -0.1698249876499176,
                        0.33963942527770996,
                        -1.1621055603027344,
                        -0.4478224813938141,
                        0.15614020824432373,
                        -0.2021024078130722,
                        0.24795696139335632,
                        0.22979401051998138,
                        -0.6860767602920532
                    ],
                    [
                        -0.001972413156181574,
                        -0.0009319009259343147,
                        0.04863351210951805,
                        -0.21455469727516174,
                        -0.17447635531425476,
                        -0.20111650228500366,
                        0.07329974323511124,
                        0.08319900184869766,
                        -0.23438633978366852
                    ],
                    [
                        0.03167489916086197,
                        0.006177762057632208,
                        -0.02651689387857914,
                        -0.1122027188539505,
                        -0.050312742590904236,
                        -0.38570353388786316,
                        0.05893026292324066,
                        0.05670029670000076,
                        0.008643953129649162
                    ],
                    [
                        -1.585417628288269,
                        0.012618700042366982,
                        -0.5255743265151978,
                        -0.5905125141143799,
                        0.9486669301986694,
                        0.1766381859779358,
                        -0.48573872447013855,
                        -0.11721991747617722,
                        -0.04803016409277916
                    ],
                    [
                        -0.19890503585338593,
                        -0.16359488666057587,
                        -0.21545380353927612,
                        -0.20025821030139923,
                        -0.044433608651161194,
                        0.1392892301082611,
                        0.06456859409809113,
                        0.08225763589143753,
                        -0.03115939348936081
                    ],
                    [
                        -0.057865776121616364,
                        0.6295487880706787,
                        0.12243328243494034,
                        0.403616338968277,
                        -1.6998904943466187,
                        0.30906182527542114,
                        -0.08050455152988434,
                        1.2574974298477173,
                        0.033718641847372055
                    ],
                    [
                        -0.07464330643415451,
                        -0.10524982213973999,
                        0.11999376863241196,
                        0.04049171879887581,
                        0.031217098236083984,
                        -0.14052090048789978,
                        -0.46288949251174927,
                        0.0012475088005885482,
                        -0.6171520948410034
                    ],
                    [
                        0.17870904505252838,
                        0.2455051690340042,
                        0.13870885968208313,
                        -0.40712568163871765,
                        0.12130951136350632,
                        -0.2750738561153412,
                        -0.38007450103759766,
                        -0.19176869094371796,
                        -0.4017952084541321
                    ],
                    [
                        -0.09851350635290146,
                        0.24380740523338318,
                        -0.00142927176784724,
                        -0.02179584465920925,
                        0.21311058104038239,
                        -0.06904475390911102,
                        -0.20674441754817963,
                        -0.4625455439090729,
                        -0.5192891955375671
                    ],
                    [
                        0.12112805247306824,
                        0.09426084905862808,
                        0.2999354898929596,
                        -0.1573840081691742,
                        -0.4027610719203949,
                        0.025124385952949524,
                        -0.4264565408229828,
                        -0.4748819172382355,
                        -0.0514952726662159
                    ],
                    [
                        0.05945241451263428,
                        -0.12042693793773651,
                        -0.22383639216423035,
                        0.20387110114097595,
                        -0.2294217050075531,
                        -0.23680219054222107,
                        -0.02464154362678528,
                        -0.0450194776058197,
                        -0.205625981092453
                    ],
                    [
                        -0.27818983793258667,
                        0.04093232750892639,
                        0.14146217703819275,
                        0.22299209237098694,
                        -0.186557337641716,
                        -0.02728179097175598,
                        0.03865876793861389,
                        -0.22199861705303192,
                        -0.3030519187450409
                    ],
                    [
                        -0.5254964232444763,
                        0.14839798212051392,
                        -0.09830236434936523,
                        -0.5817936062812805,
                        0.5139254927635193,
                        -0.008284330368041992,
                        0.21563886106014252,
                        -0.6284375786781311,
                        -0.4246599078178406
                    ],
                    [
                        0.1391841471195221,
                        0.10491913557052612,
                        -0.3216446042060852,
                        -0.20877479016780853,
                        0.15487773716449738,
                        -0.116973377764225,
                        -0.2971368432044983,
                        -0.10821410268545151,
                        -0.2384141981601715
                    ],
                    [
                        0.5721063017845154,
                        -0.033941011875867844,
                        0.1056067943572998,
                        -0.20953597128391266,
                        0.01765827275812626,
                        -0.5443000197410583,
                        -0.46862003207206726,
                        -0.654568076133728,
                        -0.02475622482597828
                    ],
                    [
                        0.06771816313266754,
                        -0.370260626077652,
                        -0.30723482370376587,
                        0.25727221369743347,
                        -0.19575010240077972,
                        -0.11680269986391068,
                        -0.4856129288673401,
                        -0.24345335364341736,
                        0.1683482825756073
                    ],
                    [
                        -0.028600167483091354,
                        2.046079158782959,
                        -0.2890176475048065,
                        -0.18799427151679993,
                        0.29077237844467163,
                        0.2548341155052185,
                        2.009612798690796,
                        0.5370528697967529,
                        0.31497782468795776
                    ],
                    [
                        0.04538032412528992,
                        0.037547722458839417,
                        -0.08609779924154282,
                        -0.28076231479644775,
                        -0.27212589979171753,
                        0.04002435505390167,
                        -0.11776619404554367,
                        0.010658578015863895,
                        -0.13936805725097656
                    ],
                    [
                        -0.4967658817768097,
                        -0.3084457814693451,
                        0.542716383934021,
                        -0.05383743345737457,
                        -0.5174296498298645,
                        0.28251147270202637,
                        -0.8085974454879761,
                        -0.22119563817977905,
                        0.03596815466880798
                    ],
                    [
                        -0.07223235070705414,
                        0.06869194656610489,
                        -0.3591728210449219,
                        0.0009088052320294082,
                        -0.23426082730293274,
                        0.18456538021564484,
                        0.11311016231775284,
                        -0.004327517468482256,
                        -0.08952786773443222
                    ],
                    [
                        -0.05579756572842598,
                        0.1688617616891861,
                        -0.34961584210395813,
                        -0.013917865231633186,
                        0.12895818054676056,
                        -0.0920441672205925,
                        -0.21913756430149078,
                        -0.1750614196062088,
                        0.12387380003929138
                    ],
                    [
                        1.3174567222595215,
                        0.6567577123641968,
                        0.8515825867652893,
                        0.9835469722747803,
                        -0.1134750172495842,
                        1.100583553314209,
                        0.409588485956192,
                        0.9173889756202698,
                        -0.5012341737747192
                    ],
                    [
                        -0.6947823166847229,
                        0.10717229545116425,
                        -0.4323258399963379,
                        0.18921197950839996,
                        0.1555166244506836,
                        -0.10909350961446762,
                        -0.2377452850341797,
                        -0.07547345012426376,
                        0.10773450881242752
                    ],
                    [
                        -0.3577498495578766,
                        -0.02829885482788086,
                        -0.33805662393569946,
                        -0.1542310118675232,
                        0.43671438097953796,
                        -0.02610728144645691,
                        -0.12970419228076935,
                        -0.5543683767318726,
                        -0.03092930279672146
                    ],
                    [
                        -0.0721917375922203,
                        0.04548027366399765,
                        0.014453763142228127,
                        -0.1015542522072792,
                        -0.4974072277545929,
                        -0.36485275626182556,
                        -0.11258388310670853,
                        0.2089451402425766,
                        0.03294115513563156
                    ],
                    [
                        0.17202644050121307,
                        -0.17024211585521698,
                        -0.046054426580667496,
                        -0.16058175265789032,
                        -0.2086227387189865,
                        -0.3109317123889923,
                        -0.07957947999238968,
                        -0.21788117289543152,
                        0.15072093904018402
                    ],
                    [
                        0.48727720975875854,
                        -0.20468463003635406,
                        -0.5675039887428284,
                        -0.3308686316013336,
                        0.11930844187736511,
                        0.13528476655483246,
                        -0.24220556020736694,
                        -0.13745909929275513,
                        -0.38203540444374084
                    ],
                    [
                        -0.41967543959617615,
                        -0.4119258224964142,
                        0.20553958415985107,
                        0.030889172106981277,
                        0.05015086755156517,
                        -0.18422815203666687,
                        0.034126050770282745,
                        -0.21219241619110107,
                        0.04255475848913193
                    ],
                    [
                        -0.01638505607843399,
                        -0.03665987402200699,
                        -0.01947438344359398,
                        -0.4340612590312958,
                        0.041593585163354874,
                        0.07776469737291336,
                        -0.055200930684804916,
                        -0.5699931383132935,
                        0.10701882094144821
                    ],
                    [
                        -0.9595636129379272,
                        -0.12552282214164734,
                        0.26534658670425415,
                        -0.1996123045682907,
                        0.8860548138618469,
                        -0.1143326535820961,
                        0.43089330196380615,
                        -0.22367168962955475,
                        1.2079615592956543
                    ],
                    [
                        -0.4999483525753021,
                        -0.0014149559428915381,
                        -0.4887140691280365,
                        -0.38581979274749756,
                        -0.31716686487197876,
                        0.1482875645160675,
                        -0.13749799132347107,
                        0.15335345268249512,
                        0.26525378227233887
                    ],
                    [
                        -0.27887606620788574,
                        -0.17883515357971191,
                        0.020087987184524536,
                        -0.16952788829803467,
                        0.024433523416519165,
                        -0.07427084445953369,
                        0.12564155459403992,
                        -0.2829640805721283,
                        0.0042612552642822266
                    ],
                    [
                        -0.06331877410411835,
                        -0.04634919390082359,
                        0.11141908913850784,
                        -0.2376842051744461,
                        -0.5244513750076294,
                        -0.04302755743265152,
                        0.12669186294078827,
                        -0.4140281677246094,
                        0.12882106006145477
                    ],
                    [
                        -0.25462231040000916,
                        -0.13939747214317322,
                        -0.027558941394090652,
                        -0.3637118339538574,
                        0.03990998491644859,
                        -0.1600254774093628,
                        0.17020191252231598,
                        -0.12772051990032196,
                        -0.12420006841421127
                    ],
                    [
                        0.9848732948303223,
                        0.6909294128417969,
                        -0.4374074339866638,
                        -1.8486719131469727,
                        0.34332138299942017,
                        -1.0084025859832764,
                        0.28775694966316223,
                        0.19444318115711212,
                        0.6404941082000732
                    ],
                    [
                        0.011838083155453205,
                        -0.518412172794342,
                        0.1281537264585495,
                        -0.06757421791553497,
                        0.26306644082069397,
                        -0.19280478358268738,
                        -0.1969623565673828,
                        0.04481097310781479,
                        -0.4224873185157776
                    ],
                    [
                        -0.25941991806030273,
                        -0.040990203619003296,
                        0.07107174396514893,
                        -0.045763224363327026,
                        -0.1608642339706421,
                        -0.2611934542655945,
                        -0.23924915492534637,
                        -0.10881511867046356,
                        -0.2541618049144745
                    ],
                    [
                        -0.17514799535274506,
                        -0.2955247759819031,
                        -0.3404156565666199,
                        -0.07917998731136322,
                        0.0312027744948864,
                        -0.33609700202941895,
                        0.26891955733299255,
                        0.13656258583068848,
                        0.10193710029125214
                    ],
                    [
                        -0.04658577963709831,
                        0.0005058918031863868,
                        -0.5516138672828674,
                        -0.3303832411766052,
                        0.2340719848871231,
                        0.07583396881818771,
                        0.03325136750936508,
                        -0.19199466705322266,
                        -0.19714224338531494
                    ],
                    [
                        -0.13568243384361267,
                        -0.18287713825702667,
                        0.22221814095973969,
                        0.11360384523868561,
                        -0.6359940767288208,
                        -1.4620546102523804,
                        -0.4131327271461487,
                        0.4553484618663788,
                        0.08435197919607162
                    ],
                    [
                        -0.4316485524177551,
                        0.2385605424642563,
                        -0.1640378087759018,
                        -0.21135731041431427,
                        -0.23254022002220154,
                        0.28127795457839966,
                        0.036135416477918625,
                        -0.44812920689582825,
                        -0.07671640068292618
                    ],
                    [
                        -0.16397063434123993,
                        0.020110368728637695,
                        0.02628597617149353,
                        -0.2176097333431244,
                        -0.0457838773727417,
                        -0.27114731073379517,
                        -0.30972760915756226,
                        -0.1302158534526825,
                        -0.2713187634944916
                    ],
                    [
                        -0.062414757907390594,
                        -0.1944209337234497,
                        -0.2857784926891327,
                        -0.5506361722946167,
                        0.10218583792448044,
                        0.02027239091694355,
                        -0.5109400153160095,
                        0.2846834063529968,
                        0.20012788474559784
                    ],
                    [
                        -0.9766576290130615,
                        0.818657398223877,
                        0.7951493859291077,
                        0.02996222674846649,
                        0.3499831259250641,
                        0.21542249619960785,
                        -1.2759196758270264,
                        0.3245885670185089,
                        0.5242171883583069
                    ],
                    [
                        -0.1967964470386505,
                        -0.6373152136802673,
                        0.13460512459278107,
                        -0.12205609679222107,
                        0.201559379696846,
                        0.1594225913286209,
                        0.13455241918563843,
                        1.5296971797943115,
                        0.6019949913024902
                    ],
                    [
                        -0.03507446125149727,
                        0.2917172908782959,
                        -0.31981444358825684,
                        -0.02650541253387928,
                        0.1568450927734375,
                        -0.0028262592386454344,
                        -0.337564080953598,
                        -0.36749887466430664,
                        -0.23458731174468994
                    ],
                    [
                        -0.4295661151409149,
                        0.09271028637886047,
                        -0.2982727289199829,
                        -0.021731294691562653,
                        -0.2986111342906952,
                        -0.3619488477706909,
                        0.23923204839229584,
                        -0.10315656661987305,
                        0.015705140307545662
                    ],
                    [
                        -0.48280858993530273,
                        0.12514279782772064,
                        -0.24339181184768677,
                        0.017421705648303032,
                        -0.2864049971103668,
                        -0.20714984834194183,
                        -0.10136701166629791,
                        0.08396274596452713,
                        0.20622624456882477
                    ],
                    [
                        0.137208953499794,
                        0.0417654812335968,
                        -0.09861533343791962,
                        -0.17720292508602142,
                        -0.005379497539252043,
                        -0.27292710542678833,
                        0.16555099189281464,
                        0.082796111702919,
                        -0.4058303236961365
                    ],
                    [
                        -0.13795515894889832,
                        -0.14387816190719604,
                        0.5026102066040039,
                        -0.5630077719688416,
                        -0.06951802968978882,
                        0.25881505012512207,
                        -0.2769566774368286,
                        -0.711759090423584,
                        -0.27859270572662354
                    ],
                    [
                        -0.4955492615699768,
                        -0.18182829022407532,
                        0.277587890625,
                        -0.2028646469116211,
                        -0.3166985511779785,
                        0.48735493421554565,
                        -0.12377588450908661,
                        -0.08313494920730591,
                        -0.7951542735099792
                    ],
                    [
                        0.036390919238328934,
                        0.06276577711105347,
                        0.012559106573462486,
                        -0.10229100286960602,
                        0.7978497743606567,
                        -0.6515583992004395,
                        0.05965602025389671,
                        -2.0666239261627197,
                        0.02820301428437233
                    ],
                    [
                        -0.3427461087703705,
                        0.024130240082740784,
                        0.042622461915016174,
                        -0.3506687879562378,
                        -0.12358380854129791,
                        0.15224573016166687,
                        0.10540107637643814,
                        -0.3712877333164215,
                        -0.13866053521633148
                    ],
                    [
                        0.017842842265963554,
                        -0.10620968043804169,
                        -0.106520876288414,
                        -0.22769004106521606,
                        -0.6256911158561707,
                        0.2409919649362564,
                        0.1339217573404312,
                        -0.13462990522384644,
                        -0.2755754590034485
                    ],
                    [
                        0.014790861867368221,
                        -0.22722052037715912,
                        -0.009751838631927967,
                        -0.0588456392288208,
                        0.18832679092884064,
                        0.0007180619286373258,
                        -0.08216908574104309,
                        -0.003762913402169943,
                        -0.17622335255146027
                    ],
                    [
                        0.5431636571884155,
                        0.17040756344795227,
                        -0.1944616585969925,
                        0.4292107820510864,
                        -1.3816332817077637,
                        0.0005900715477764606,
                        -0.4319233000278473,
                        -0.4879842698574066,
                        1.070467233657837
                    ],
                    [
                        0.19436746835708618,
                        -0.13157494366168976,
                        0.3043304681777954,
                        -0.25103163719177246,
                        -0.3445946276187897,
                        -0.0026138359680771828,
                        -0.43377941846847534,
                        -0.4204057455062866,
                        -0.06443215161561966
                    ],
                    [
                        -0.36424294114112854,
                        0.2588907778263092,
                        0.33209332823753357,
                        -0.3734631836414337,
                        -0.4928974509239197,
                        0.25831177830696106,
                        -0.6951252222061157,
                        -0.0069360630586743355,
                        -0.5029121041297913
                    ],
                    [
                        0.17072831094264984,
                        -0.3493328392505646,
                        -0.18055765330791473,
                        0.08853250741958618,
                        -0.16240930557250977,
                        -0.2570699155330658,
                        -0.14949429035186768,
                        0.12312304973602295,
                        -0.37401023507118225
                    ],
                    [
                        -0.20672300457954407,
                        0.051528483629226685,
                        -0.3763672411441803,
                        -0.9535725712776184,
                        0.06630279123783112,
                        0.7015493512153625,
                        -0.5902109146118164,
                        -1.0655221939086914,
                        0.3339938819408417
                    ],
                    [
                        -0.053710103034973145,
                        -0.1585114449262619,
                        -0.15307466685771942,
                        -0.13477067649364471,
                        -0.04472005367279053,
                        -0.04991963505744934,
                        -0.11780774593353271,
                        -0.311038613319397,
                        0.15693166851997375
                    ],
                    [
                        -0.28014296293258667,
                        0.05197771266102791,
                        -0.4833696186542511,
                        0.2605062425136566,
                        0.3120250999927521,
                        -0.4747697412967682,
                        -0.2991461455821991,
                        -0.4932752251625061,
                        0.019777268171310425
                    ],
                    [
                        -0.549774706363678,
                        -0.25611552596092224,
                        0.10774287581443787,
                        -0.11077867448329926,
                        0.09041570872068405,
                        0.09693444520235062,
                        0.08406183868646622,
                        -0.09010695666074753,
                        -0.4616852104663849
                    ],
                    [
                        -0.14169543981552124,
                        -0.11820273101329803,
                        -0.08856818825006485,
                        0.137770876288414,
                        0.131133034825325,
                        -0.31327518820762634,
                        0.025882955640554428,
                        -0.18534892797470093,
                        -0.27247676253318787
                    ],
                    [
                        -0.2782794237136841,
                        0.25088998675346375,
                        -0.2918625771999359,
                        -0.40047648549079895,
                        -0.3276701271533966,
                        -0.03371528536081314,
                        0.2754610776901245,
                        -0.1053600013256073,
                        -0.33988311886787415
                    ],
                    [
                        0.13681399822235107,
                        0.8683743476867676,
                        -0.2600133717060089,
                        -0.1713813692331314,
                        1.3511090278625488,
                        0.319463312625885,
                        -0.6732475161552429,
                        -1.2061809301376343,
                        -0.9452832937240601
                    ],
                    [
                        0.19264976680278778,
                        -0.7833770513534546,
                        -0.221684530377388,
                        0.005470469128340483,
                        -0.5631234049797058,
                        0.10809113830327988,
                        -0.5189033150672913,
                        0.19289132952690125,
                        0.259311318397522
                    ],
                    [
                        -0.0039655184373259544,
                        -0.09103462100028992,
                        0.03592643886804581,
                        -0.1401042938232422,
                        -0.31188204884529114,
                        0.18382757902145386,
                        -0.1089223101735115,
                        -0.13254603743553162,
                        -0.06615844368934631
                    ],
                    [
                        -0.10389035195112228,
                        0.1642773598432541,
                        0.01481543853878975,
                        0.05381251126527786,
                        -0.11074500530958176,
                        -0.058070652186870575,
                        -0.5310976505279541,
                        0.15312889218330383,
                        -0.32115447521209717
                    ],
                    [
                        0.067818284034729,
                        0.1250624656677246,
                        -0.22052621841430664,
                        -0.3051862418651581,
                        -0.31884610652923584,
                        -0.24842099845409393,
                        0.32407745718955994,
                        -0.17940494418144226,
                        -0.18749618530273438
                    ],
                    [
                        0.17004378139972687,
                        -0.23441025614738464,
                        -0.0803096666932106,
                        -0.2442040592432022,
                        0.26099130511283875,
                        -0.3249404728412628,
                        -0.2472684234380722,
                        -0.19247379899024963,
                        -0.01961926557123661
                    ],
                    [
                        -0.023977335542440414,
                        0.06415726989507675,
                        -0.14690980315208435,
                        -0.06408631056547165,
                        -0.6280210614204407,
                        -0.14488404989242554,
                        0.19763582944869995,
                        0.26973411440849304,
                        -0.5505912899971008
                    ],
                    [
                        -0.2123318463563919,
                        -0.20172764360904694,
                        -0.1049773097038269,
                        -0.010032138787209988,
                        -0.5996962189674377,
                        -0.13634686172008514,
                        0.11696851998567581,
                        0.3134170174598694,
                        -0.07770877331495285
                    ],
                    [
                        -0.31844550371170044,
                        -0.7241052389144897,
                        -1.0729373693466187,
                        -1.1332095861434937,
                        0.30027928948402405,
                        -0.24633848667144775,
                        0.42364034056663513,
                        0.5657745003700256,
                        0.024542871862649918
                    ],
                    [
                        -0.4337135851383209,
                        0.04297821596264839,
                        -0.1752985417842865,
                        0.01662820763885975,
                        0.08880574256181717,
                        0.134661003947258,
                        -0.5455054044723511,
                        0.12399879842996597,
                        -0.14854004979133606
                    ],
                    [
                        -0.4789128303527832,
                        -0.3753851056098938,
                        0.15049715340137482,
                        0.1244230717420578,
                        -0.49542850255966187,
                        0.20299772918224335,
                        -0.1751583069562912,
                        -0.10751901566982269,
                        0.07497921586036682
                    ],
                    [
                        0.1352107971906662,
                        0.0660114586353302,
                        -0.43109264969825745,
                        -0.11701039969921112,
                        -0.06696129590272903,
                        -0.2914687693119049,
                        -0.40521156787872314,
                        -0.3959755599498749,
                        0.09875660389661789
                    ],
                    [
                        -0.2598414123058319,
                        0.060414232313632965,
                        -0.22125385701656342,
                        -0.2206532061100006,
                        0.021331652998924255,
                        -0.21520724892616272,
                        0.1475791335105896,
                        -0.4094882905483246,
                        0.1870994120836258
                    ],
                    [
                        -0.5119694471359253,
                        -0.33712130784988403,
                        0.13368618488311768,
                        0.12791097164154053,
                        -0.13550756871700287,
                        0.15147754549980164,
                        -0.29158276319503784,
                        -0.4983069598674774,
                        0.16290245950222015
                    ],
                    [
                        0.05863945186138153,
                        0.0784803032875061,
                        -0.15580937266349792,
                        0.08030717074871063,
                        -0.10599128901958466,
                        -0.3611181080341339,
                        -0.4422124922275543,
                        -0.1483226716518402,
                        0.20267440378665924
                    ],
                    [
                        -0.24584338068962097,
                        -0.14866280555725098,
                        -0.3363356590270996,
                        0.20932422578334808,
                        0.13158367574214935,
                        -0.31691792607307434,
                        -0.10656105726957321,
                        -0.12468376755714417,
                        0.14767539501190186
                    ],
                    [
                        0.1865183562040329,
                        0.3873911201953888,
                        -0.3571426272392273,
                        -0.5203819870948792,
                        0.19733990728855133,
                        0.10557006299495697,
                        -0.8137779235839844,
                        -0.7580825090408325,
                        -0.023490343242883682
                    ],
                    [
                        0.14040346443653107,
                        -0.0010788277722895145,
                        0.2953900694847107,
                        0.05270949751138687,
                        0.21081459522247314,
                        0.16799405217170715,
                        0.18224821984767914,
                        -0.3143186569213867,
                        -2.0852572917938232
                    ],
                    [
                        0.07509312778711319,
                        -0.08969864994287491,
                        -0.3442232310771942,
                        -0.13705545663833618,
                        -0.1003011018037796,
                        0.2664330303668976,
                        -0.6616016030311584,
                        0.1156858429312706,
                        -0.19337664544582367
                    ],
                    [
                        0.3145004212856293,
                        -0.19880592823028564,
                        0.22489304840564728,
                        -0.3224031925201416,
                        -0.5152601003646851,
                        0.1917993277311325,
                        -0.0043301996774971485,
                        -0.36865463852882385,
                        -0.5809401273727417
                    ],
                    [
                        0.1147846132516861,
                        -0.03963349014520645,
                        -0.13778996467590332,
                        -0.40155255794525146,
                        -0.08869029581546783,
                        -0.2672578692436218,
                        0.16530732810497284,
                        0.0891265943646431,
                        -0.052277661859989166
                    ],
                    [
                        -0.09002408385276794,
                        -0.32494011521339417,
                        -0.04575123265385628,
                        -0.3218328058719635,
                        0.10438477247953415,
                        0.03208288550376892,
                        -0.40640121698379517,
                        0.23684848845005035,
                        -0.24251823127269745
                    ],
                    [
                        -0.07553408294916153,
                        0.2687881588935852,
                        -0.092555932700634,
                        -0.22240272164344788,
                        -0.34936287999153137,
                        -0.18796487152576447,
                        -0.18938632309436798,
                        -0.10898201912641525,
                        0.0621708407998085
                    ],
                    [
                        -0.03091663494706154,
                        0.2502988278865814,
                        -0.361765056848526,
                        -0.20928753912448883,
                        0.06439924240112305,
                        -0.3834747076034546,
                        0.05134190618991852,
                        -0.4461246132850647,
                        0.17356270551681519
                    ],
                    [
                        -0.18280377984046936,
                        -0.25607967376708984,
                        -0.28887811303138733,
                        0.054034456610679626,
                        -0.0007290846551768482,
                        -0.09107482433319092,
                        -0.10922406613826752,
                        0.057335447520017624,
                        0.10942687839269638
                    ],
                    [
                        0.09827440232038498,
                        -0.34473395347595215,
                        0.1881144642829895,
                        0.20177055895328522,
                        -0.41829124093055725,
                        0.017870871350169182,
                        -0.2694910168647766,
                        -0.046367496252059937,
                        -0.09083791822195053
                    ],
                    [
                        0.16112938523292542,
                        -0.12990020215511322,
                        -0.27826347947120667,
                        -0.15202447772026062,
                        -0.11122769862413406,
                        -0.3407914936542511,
                        -0.20996831357479095,
                        -0.40960633754730225,
                        0.23491790890693665
                    ],
                    [
                        -0.2555774450302124,
                        -0.8965575695037842,
                        -0.3755320906639099,
                        -0.25610241293907166,
                        0.4431571066379547,
                        -0.3059682250022888,
                        -0.45068031549453735,
                        -0.28675615787506104,
                        0.5027580857276917
                    ],
                    [
                        -0.010863900184631348,
                        -0.27076634764671326,
                        0.0646367073059082,
                        0.12283122539520264,
                        0.1416177749633789,
                        -0.29016953706741333,
                        -0.3114776611328125,
                        -0.3030344843864441,
                        -0.048035115003585815
                    ],
                    [
                        -0.371970534324646,
                        -0.1605641096830368,
                        0.03647247329354286,
                        0.08031850308179855,
                        -0.06849642097949982,
                        -0.06520427018404007,
                        -0.32438233494758606,
                        0.03072708658874035,
                        0.05433713272213936
                    ],
                    [
                        0.2683916389942169,
                        -0.30204570293426514,
                        -0.2489168643951416,
                        -0.1646561324596405,
                        -0.2549378573894501,
                        -0.09309586882591248,
                        -0.23904666304588318,
                        -0.144012451171875,
                        0.1125059425830841
                    ],
                    [
                        -0.37829479575157166,
                        -0.17683470249176025,
                        -0.21048761904239655,
                        0.24155904352664948,
                        0.057087771594524384,
                        -0.022467076778411865,
                        -0.258478581905365,
                        0.0949053019285202,
                        -0.3501870036125183
                    ],
                    [
                        -0.4342379868030548,
                        0.054002851247787476,
                        0.042116280645132065,
                        -0.08853234350681305,
                        -0.5916089415550232,
                        0.20002678036689758,
                        0.07256782799959183,
                        -0.0001660380803514272,
                        -0.2702913284301758
                    ],
                    [
                        -0.259292334318161,
                        -0.3333793580532074,
                        -0.22550970315933228,
                        0.213444322347641,
                        0.13257959485054016,
                        0.013970965519547462,
                        -0.5572267770767212,
                        -0.16542841494083405,
                        0.12655119597911835
                    ],
                    [
                        -0.2344033420085907,
                        -0.2761198580265045,
                        0.17370180785655975,
                        -0.023670390248298645,
                        0.06111516058444977,
                        -0.34856298565864563,
                        -0.2742610275745392,
                        -0.2545378804206848,
                        0.22972418367862701
                    ],
                    [
                        0.04511414095759392,
                        -0.3419114351272583,
                        -0.1575029045343399,
                        -0.3773314356803894,
                        0.16773028671741486,
                        -0.2434501349925995,
                        0.0018203224753960967,
                        0.25482988357543945,
                        -0.0676490068435669
                    ],
                    [
                        0.10681450366973877,
                        -0.12391726672649384,
                        0.13866117596626282,
                        -0.0001723766326904297,
                        -0.13452085852622986,
                        -0.09929549694061279,
                        -0.23282918334007263,
                        -0.0633176863193512,
                        -0.11196443438529968
                    ],
                    [
                        -0.0383787639439106,
                        -0.18162153661251068,
                        -0.03473297506570816,
                        0.16984248161315918,
                        0.019199006259441376,
                        -0.11022352427244186,
                        -0.12130334228277206,
                        -0.11551588773727417,
                        -0.24650105834007263
                    ],
                    [
                        0.00022580503718927503,
                        -0.36030954122543335,
                        0.04472505301237106,
                        0.27550679445266724,
                        -0.06251759082078934,
                        -0.07371629774570465,
                        -0.26967400312423706,
                        -0.09976410865783691,
                        -0.22452348470687866
                    ],
                    [
                        -0.15745890140533447,
                        0.23138245940208435,
                        0.04344126582145691,
                        -0.07718726992607117,
                        -0.2776557207107544,
                        -0.09206649661064148,
                        -0.07436278462409973,
                        -0.3250215947628021,
                        -0.12315773963928223
                    ],
                    [
                        -0.17185154557228088,
                        0.08184128999710083,
                        -0.2837253510951996,
                        0.1735462099313736,
                        0.15059444308280945,
                        -0.21382085978984833,
                        -0.3422774374485016,
                        -0.13828280568122864,
                        -0.0030066880863159895
                    ],
                    [
                        0.15834303200244904,
                        0.15178196132183075,
                        -0.16504503786563873,
                        -0.17591269314289093,
                        -0.34302717447280884,
                        0.06436695903539658,
                        0.015557813458144665,
                        -0.44162702560424805,
                        -0.006070011295378208
                    ],
                    [
                        0.04506271332502365,
                        -0.021589571610093117,
                        -0.12836484611034393,
                        0.027751252055168152,
                        0.14687064290046692,
                        -0.3712941110134125,
                        0.21726030111312866,
                        -0.3376401960849762,
                        -0.5333585739135742
                    ],
                    [
                        -0.2111501693725586,
                        -0.21170574426651,
                        0.014600184746086597,
                        0.2908473312854767,
                        -0.29930227994918823,
                        -0.11389307677745819,
                        -0.26208966970443726,
                        0.01663150265812874,
                        0.007137636188417673
                    ],
                    [
                        -0.11166331171989441,
                        -0.0842396467924118,
                        -0.12856802344322205,
                        -0.30223000049591064,
                        0.10745525360107422,
                        0.2614741623401642,
                        -0.24938730895519257,
                        -0.01720893383026123,
                        -0.21354135870933533
                    ],
                    [
                        0.09927298128604889,
                        0.7363776564598083,
                        0.6604226231575012,
                        -0.26990368962287903,
                        0.6876561641693115,
                        0.14505331218242645,
                        -1.704699993133545,
                        0.7018890380859375,
                        -0.44860580563545227
                    ],
                    [
                        -0.3779284358024597,
                        -0.19790445268154144,
                        0.7554811835289001,
                        -0.1378050297498703,
                        -0.17917492985725403,
                        -0.21033169329166412,
                        -0.27675631642341614,
                        -1.0099968910217285,
                        0.4518187940120697
                    ],
                    [
                        -0.16652904450893402,
                        0.14418670535087585,
                        -0.30854031443595886,
                        -0.2488473653793335,
                        -0.214146688580513,
                        -0.023431599140167236,
                        0.03051941841840744,
                        0.21094700694084167,
                        -0.17508110404014587
                    ],
                    [
                        -0.08669321238994598,
                        -0.26554909348487854,
                        0.2111552655696869,
                        0.09775423258543015,
                        -0.9728076457977295,
                        -0.13363569974899292,
                        0.17694073915481567,
                        -0.14293688535690308,
                        -0.1756192296743393
                    ],
                    [
                        -0.31683096289634705,
                        -0.04067550599575043,
                        -0.3015149235725403,
                        0.09844844788312912,
                        0.06099972873926163,
                        -0.091978058218956,
                        -0.025156574323773384,
                        -0.09866496920585632,
                        -0.016905201599001884
                    ],
                    [
                        -1.2286585569381714,
                        -0.7757684588432312,
                        -0.15545423328876495,
                        0.1410493105649948,
                        0.7228574752807617,
                        -0.3131646513938904,
                        -0.13032470643520355,
                        0.15584823489189148,
                        0.14872127771377563
                    ],
                    [
                        0.27147141098976135,
                        0.3186858892440796,
                        0.24249733984470367,
                        -0.45473024249076843,
                        -0.4134313464164734,
                        0.25469619035720825,
                        -1.0510680675506592,
                        -0.11719698458909988,
                        -0.554969310760498
                    ],
                    [
                        0.0962357223033905,
                        0.15119726955890656,
                        0.04878900200128555,
                        -0.18155047297477722,
                        -0.41822120547294617,
                        -0.321388304233551,
                        0.12606990337371826,
                        -0.18879260122776031,
                        0.1193539947271347
                    ],
                    [
                        -0.19192355871200562,
                        -0.12452562898397446,
                        0.1389574408531189,
                        -0.1734478920698166,
                        -0.6063557267189026,
                        0.16411878168582916,
                        -0.09606548398733139,
                        0.11229776591062546,
                        0.10743025690317154
                    ],
                    [
                        0.11248821765184402,
                        0.0960097685456276,
                        -0.06745485961437225,
                        -0.025874920189380646,
                        0.146169051527977,
                        -0.05758674442768097,
                        -0.24083483219146729,
                        -0.23314157128334045,
                        -0.1871441900730133
                    ],
                    [
                        -0.3475416898727417,
                        0.20935003459453583,
                        -0.6133053302764893,
                        0.40323108434677124,
                        0.04038931429386139,
                        -0.3941120505332947,
                        -0.08871617168188095,
                        -0.6333383917808533,
                        -0.1566089689731598
                    ],
                    [
                        0.182643324136734,
                        -0.09483768045902252,
                        -0.3356514573097229,
                        -0.6522524952888489,
                        0.21985474228858948,
                        -0.10501164197921753,
                        0.30745619535446167,
                        0.10594571381807327,
                        -0.9263609051704407
                    ],
                    [
                        0.120767742395401,
                        -0.22791680693626404,
                        0.110275037586689,
                        -0.21288345754146576,
                        0.18192937970161438,
                        -0.3502831757068634,
                        -0.2964550256729126,
                        0.11643464863300323,
                        -0.3380056917667389
                    ],
                    [
                        -0.19981519877910614,
                        0.11009366810321808,
                        -0.16203686594963074,
                        -0.10953370481729507,
                        -0.1297251135110855,
                        0.058226123452186584,
                        -0.19771090149879456,
                        -0.01616891287267208,
                        0.13360075652599335
                    ],
                    [
                        -0.10102829337120056,
                        -0.18258512020111084,
                        -0.04887807369232178,
                        -0.09986281394958496,
                        0.05782076716423035,
                        0.009201914072036743,
                        -0.2342386245727539,
                        -0.08305466175079346,
                        -0.11994926631450653
                    ],
                    [
                        -0.5043396353721619,
                        0.21616201102733612,
                        -0.1819278746843338,
                        -0.12543171644210815,
                        -0.717471718788147,
                        0.1221054345369339,
                        0.1352999359369278,
                        -0.23997382819652557,
                        0.1272573322057724
                    ],
                    [
                        -0.1024237871170044,
                        -0.3285476863384247,
                        -0.09774939715862274,
                        0.24699315428733826,
                        -0.26198670268058777,
                        -0.19826821982860565,
                        0.08299872279167175,
                        -0.15429989993572235,
                        -0.18884699046611786
                    ],
                    [
                        -0.12219347059726715,
                        0.11524675786495209,
                        -0.202593594789505,
                        -0.0959271788597107,
                        0.1991357058286667,
                        -0.05268535017967224,
                        -0.2700656056404114,
                        -0.3503071069717407,
                        0.13021568953990936
                    ],
                    [
                        0.17247118055820465,
                        -0.18513606488704681,
                        -0.5534247159957886,
                        0.2006765455007553,
                        -0.505946934223175,
                        -0.40680229663848877,
                        -0.08733963221311569,
                        0.13130156695842743,
                        -0.12219184637069702
                    ],
                    [
                        -0.1129484474658966,
                        0.5357043147087097,
                        0.16405032575130463,
                        -0.007393743842840195,
                        0.5618575811386108,
                        -1.128600001335144,
                        -1.2299565076828003,
                        -0.005344870034605265,
                        -0.4110639691352844
                    ],
                    [
                        -0.40257468819618225,
                        -0.039309028536081314,
                        -0.18509458005428314,
                        -0.08819157630205154,
                        0.20631738007068634,
                        0.11275215446949005,
                        -0.3316457271575928,
                        0.04389127716422081,
                        -0.07868565618991852
                    ],
                    [
                        -0.07651163637638092,
                        -0.36009734869003296,
                        0.2630670368671417,
                        -0.19478313624858856,
                        -0.18054108321666718,
                        -0.05892068147659302,
                        -0.19485002756118774,
                        -0.19310832023620605,
                        -0.0773644894361496
                    ],
                    [
                        -0.22906912863254547,
                        -0.1420622318983078,
                        -0.333507239818573,
                        -0.10606953501701355,
                        0.2288975715637207,
                        0.05639617145061493,
                        0.012339198961853981,
                        -0.1571909487247467,
                        -0.17427006363868713
                    ],
                    [
                        -0.5961506366729736,
                        1.1897064447402954,
                        0.5630334615707397,
                        0.022556506097316742,
                        -0.43179094791412354,
                        0.20940621197223663,
                        0.2506653368473053,
                        0.3364161550998688,
                        -0.8444017171859741
                    ],
                    [
                        0.07093803584575653,
                        0.1345764696598053,
                        -0.10414523631334305,
                        -0.48850587010383606,
                        0.2143392264842987,
                        0.07567230612039566,
                        0.020960839465260506,
                        -0.7638818621635437,
                        -0.30959588289260864
                    ],
                    [
                        -0.23363922536373138,
                        0.13459831476211548,
                        0.29441484808921814,
                        -0.10003942996263504,
                        -0.6392701268196106,
                        0.1247795894742012,
                        0.04679253697395325,
                        -0.05267771705985069,
                        -0.6080895066261292
                    ],
                    [
                        -0.459211140871048,
                        0.19188082218170166,
                        -0.030984334647655487,
                        0.023687303066253662,
                        -0.2902672588825226,
                        0.08930991590023041,
                        -0.1487427055835724,
                        -0.14329932630062103,
                        -0.06212006136775017
                    ],
                    [
                        -0.35338670015335083,
                        -0.0018574445275589824,
                        0.2006503939628601,
                        -0.08109717071056366,
                        -0.22964821755886078,
                        -0.11118112504482269,
                        -0.20359475910663605,
                        0.10856924951076508,
                        -0.0032167972531169653
                    ],
                    [
                        -0.41883137822151184,
                        -0.8323087096214294,
                        -0.2623237371444702,
                        -0.5180522799491882,
                        0.1541556566953659,
                        -0.06478624790906906,
                        0.1904752403497696,
                        0.29465994238853455,
                        0.1715681254863739
                    ],
                    [
                        -0.008689193986356258,
                        -1.941269040107727,
                        0.449003666639328,
                        0.6605690717697144,
                        -1.1216846704483032,
                        0.47423338890075684,
                        1.2689754962921143,
                        -0.11553705483675003,
                        0.4483526349067688
                    ],
                    [
                        -0.002479216083884239,
                        -0.1633964627981186,
                        -0.21213167905807495,
                        -0.31820815801620483,
                        0.054575059562921524,
                        0.17346012592315674,
                        -0.23765042424201965,
                        -0.035922277718782425,
                        0.0716901496052742
                    ],
                    [
                        0.04004959762096405,
                        -0.2968054711818695,
                        -0.4292847514152527,
                        -0.3239891231060028,
                        0.21228215098381042,
                        0.16737760603427887,
                        -0.38666561245918274,
                        -0.0937471017241478,
                        -0.0234934501349926
                    ],
                    [
                        -0.22239838540554047,
                        0.1568935364484787,
                        -0.396558552980423,
                        -0.020185718312859535,
                        -0.357391893863678,
                        -0.47578537464141846,
                        -0.690440833568573,
                        0.33503779768943787,
                        0.3245530426502228
                    ],
                    [
                        -0.18715056777000427,
                        0.09709031134843826,
                        0.6042767763137817,
                        -1.2457236051559448,
                        -0.8765642642974854,
                        -0.7699854373931885,
                        0.3347123861312866,
                        -0.5519270896911621,
                        0.6971673965454102
                    ],
                    [
                        -0.13930143415927887,
                        0.2115577906370163,
                        -0.29990431666374207,
                        0.5639700889587402,
                        -0.2589210867881775,
                        -0.2650589048862457,
                        -0.18619173765182495,
                        -0.2377372533082962,
                        -0.7065140008926392
                    ],
                    [
                        0.03725266829133034,
                        -0.1531427651643753,
                        0.18959397077560425,
                        -0.09284708648920059,
                        0.06025319918990135,
                        -0.10687950998544693,
                        -0.20503103733062744,
                        -0.04352420195937157,
                        -0.418308287858963
                    ],
                    [
                        0.5103390216827393,
                        -1.4743785858154297,
                        0.3067074120044708,
                        -0.36427590250968933,
                        0.5974293351173401,
                        -0.19598139822483063,
                        -0.46856197714805603,
                        -0.0031368578784167767,
                        -1.095253825187683
                    ],
                    [
                        0.24852530658245087,
                        0.041792068630456924,
                        0.800619900226593,
                        -1.070410132408142,
                        -0.7057167887687683,
                        0.19703803956508636,
                        0.8696861863136292,
                        0.22943198680877686,
                        0.23013488948345184
                    ],
                    [
                        -0.5416566133499146,
                        -0.5502387881278992,
                        0.42482614517211914,
                        -0.320015549659729,
                        -0.5169869661331177,
                        0.1948709338903427,
                        0.015621136873960495,
                        -0.49203407764434814,
                        0.2426869124174118
                    ],
                    [
                        -0.6335022449493408,
                        0.08095638453960419,
                        0.09587476402521133,
                        0.20303678512573242,
                        0.15117599070072174,
                        -0.1847626119852066,
                        -0.5984636545181274,
                        -0.3564665913581848,
                        0.07318247109651566
                    ],
                    [
                        -0.5830856561660767,
                        0.04394460469484329,
                        -0.0025545910466462374,
                        0.09258890151977539,
                        -0.4136368930339813,
                        0.12910158932209015,
                        0.17628490924835205,
                        -0.1906915158033371,
                        -0.07051731646060944
                    ],
                    [
                        0.026446720585227013,
                        -0.3013141453266144,
                        -0.06398665904998779,
                        -0.39315322041511536,
                        0.13506166636943817,
                        0.014845765195786953,
                        0.21270492672920227,
                        -0.10598619282245636,
                        0.0431671217083931
                    ],
                    [
                        -0.2964867949485779,
                        -0.33253058791160583,
                        0.032583028078079224,
                        0.09596559405326843,
                        -0.2351650446653366,
                        0.2164769470691681,
                        -0.16535255312919617,
                        -0.1609722375869751,
                        -0.2170300930738449
                    ],
                    [
                        -0.2601276636123657,
                        0.08360213041305542,
                        0.046532660722732544,
                        0.1207812950015068,
                        0.06897085160017014,
                        -0.31040453910827637,
                        -0.10332823544740677,
                        -0.213560551404953,
                        -0.11986978352069855
                    ],
                    [
                        0.004170247353613377,
                        -0.47081896662712097,
                        0.27219998836517334,
                        -0.2330811470746994,
                        -0.7329485416412354,
                        0.06342503428459167,
                        0.10839191824197769,
                        -0.3792197108268738,
                        -0.02679511345922947
                    ],
                    [
                        0.2663283348083496,
                        -0.07466968894004822,
                        -0.39402076601982117,
                        -0.36174720525741577,
                        0.3215370178222656,
                        -0.4041350185871124,
                        0.045951686799526215,
                        -0.02337048575282097,
                        -0.654292643070221
                    ],
                    [
                        0.15762798488140106,
                        -0.456741064786911,
                        -0.31742578744888306,
                        -0.1889013648033142,
                        0.03169924020767212,
                        0.048926036804914474,
                        0.1412106156349182,
                        -0.3444194495677948,
                        -0.1648559272289276
                    ],
                    [
                        -0.10523331165313721,
                        -0.14915519952774048,
                        -0.23518720269203186,
                        -0.2401549518108368,
                        0.19593465328216553,
                        -0.326702743768692,
                        0.1495409905910492,
                        0.020737072452902794,
                        -0.30308154225349426
                    ],
                    [
                        0.17006224393844604,
                        -0.18308024108409882,
                        0.005221594125032425,
                        0.07541999965906143,
                        -0.1780594438314438,
                        -0.010512552224099636,
                        -0.07407867163419724,
                        -0.13274148106575012,
                        -0.6239768266677856
                    ],
                    [
                        0.12864798307418823,
                        -0.24634021520614624,
                        0.0959325060248375,
                        -0.38395750522613525,
                        -0.43747591972351074,
                        0.0829068273305893,
                        -0.013675035908818245,
                        -0.49089884757995605,
                        0.13806045055389404
                    ],
                    [
                        -0.1974107176065445,
                        -0.07633231580257416,
                        0.1739581674337387,
                        -0.26437920331954956,
                        -0.20442554354667664,
                        0.03732439503073692,
                        -0.3580518364906311,
                        -0.19439658522605896,
                        0.19797319173812866
                    ],
                    [
                        0.10614516586065292,
                        0.259499728679657,
                        0.01431025005877018,
                        0.14044705033302307,
                        0.18624715507030487,
                        -0.1411937177181244,
                        -0.153148353099823,
                        -0.7389097213745117,
                        -1.1216990947723389
                    ],
                    [
                        0.2539903223514557,
                        -0.5811077356338501,
                        0.3161146938800812,
                        -0.4778256416320801,
                        -0.1656552404165268,
                        0.052794817835092545,
                        -0.1370345801115036,
                        -0.19032928347587585,
                        -0.15985332429409027
                    ],
                    [
                        -0.47748759388923645,
                        -0.17576880753040314,
                        0.10561337321996689,
                        0.052061326801776886,
                        -0.7171257734298706,
                        0.09909825026988983,
                        0.11298955231904984,
                        -0.03554939106106758,
                        -0.19123254716396332
                    ],
                    [
                        0.04273253306746483,
                        -0.48288607597351074,
                        -0.2957393527030945,
                        0.13811135292053223,
                        -0.01890546828508377,
                        0.17854061722755432,
                        -0.68988436460495,
                        0.04886091127991676,
                        0.05630851909518242
                    ],
                    [
                        -0.10916857421398163,
                        -0.7426434755325317,
                        -0.05873742699623108,
                        0.12266258150339127,
                        -0.5599430203437805,
                        0.25239020586013794,
                        0.3688110113143921,
                        -0.6097014546394348,
                        -0.06270810961723328
                    ],
                    [
                        -0.3595280349254608,
                        0.05084138363599777,
                        0.2183709442615509,
                        -0.48010119795799255,
                        -0.11324361711740494,
                        -0.22271472215652466,
                        0.28570887446403503,
                        -0.1393307000398636,
                        -0.20172113180160522
                    ],
                    [
                        0.4734940528869629,
                        -0.13920904695987701,
                        -0.6236172318458557,
                        -0.7824411392211914,
                        -0.29556772112846375,
                        0.03688699007034302,
                        0.17186325788497925,
                        -0.0781577080488205,
                        -0.2965620756149292
                    ],
                    [
                        0.05632048472762108,
                        -0.3199891448020935,
                        -0.05211678519845009,
                        0.029538320377469063,
                        0.17318838834762573,
                        -0.06553272902965546,
                        0.09817729145288467,
                        -0.10746362060308456,
                        -0.8097184896469116
                    ],
                    [
                        -0.03398437052965164,
                        -0.4132600426673889,
                        0.1118525043129921,
                        -0.34318917989730835,
                        0.2362491488456726,
                        0.06755736470222473,
                        -0.2785061299800873,
                        0.1069139614701271,
                        -0.19199173152446747
                    ],
                    [
                        -0.023315615952014923,
                        0.004617426544427872,
                        -0.39660000801086426,
                        0.14153717458248138,
                        0.11693345010280609,
                        0.051582153886556625,
                        -0.1262887418270111,
                        -0.4889830946922302,
                        -0.7675873041152954
                    ],
                    [
                        -0.14063319563865662,
                        -0.26756978034973145,
                        0.07067570090293884,
                        -0.439992219209671,
                        -0.25754061341285706,
                        0.011643110774457455,
                        0.017177235335111618,
                        0.04559357091784477,
                        0.21241922676563263
                    ],
                    [
                        0.028914660215377808,
                        -0.06517767906188965,
                        -0.018956303596496582,
                        0.028737932443618774,
                        -0.20720887184143066,
                        -0.23603713512420654,
                        -0.2797093987464905,
                        0.20384755730628967,
                        -0.063303142786026
                    ],
                    [
                        -0.32455185055732727,
                        -1.1822617053985596,
                        -0.9863317012786865,
                        0.3452030420303345,
                        1.4907193183898926,
                        0.1565031111240387,
                        0.5729790925979614,
                        0.355250746011734,
                        -0.6830533146858215
                    ],
                    [
                        -0.24697761237621307,
                        -0.2692144811153412,
                        -0.2189786434173584,
                        -0.0575253963470459,
                        -0.08708882331848145,
                        -0.20621848106384277,
                        -0.03842094540596008,
                        0.13154032826423645,
                        0.006144016981124878
                    ],
                    [
                        0.1053273007273674,
                        0.24630524218082428,
                        -0.7173442244529724,
                        -0.8652061820030212,
                        -0.044513363391160965,
                        -0.1792796105146408,
                        0.2620968222618103,
                        -0.27387604117393494,
                        0.0720820426940918
                    ],
                    [
                        -0.06932485103607178,
                        0.07433629035949707,
                        -0.49920740723609924,
                        0.5381702780723572,
                        -0.5213577151298523,
                        -1.7027016878128052,
                        0.02653329074382782,
                        0.3213707208633423,
                        -0.09997345507144928
                    ],
                    [
                        -0.12078310549259186,
                        -0.012873661704361439,
                        -0.015094902366399765,
                        0.03704347088932991,
                        0.1696327030658722,
                        0.07773345708847046,
                        -0.2540845572948456,
                        -0.30247294902801514,
                        -0.2293563336133957
                    ],
                    [
                        0.10092522948980331,
                        -0.44348493218421936,
                        0.03898439556360245,
                        -0.24396169185638428,
                        -0.2716730237007141,
                        -0.191105455160141,
                        0.059764184057712555,
                        0.20749057829380035,
                        0.04521496221423149
                    ],
                    [
                        0.26388120651245117,
                        -0.6626331806182861,
                        -0.4347597062587738,
                        0.20317822694778442,
                        -0.48715344071388245,
                        -0.3942050635814667,
                        0.09936881065368652,
                        0.022335829213261604,
                        0.019404808059334755
                    ],
                    [
                        -0.6101874113082886,
                        -0.10106588155031204,
                        0.12774606049060822,
                        -0.26990821957588196,
                        0.08191527426242828,
                        -0.40036487579345703,
                        -0.38165083527565,
                        0.0632425919175148,
                        0.331345796585083
                    ],
                    [
                        -0.4871070981025696,
                        -0.10695258527994156,
                        -0.3975452184677124,
                        0.17779451608657837,
                        -0.061877503991127014,
                        0.16358394920825958,
                        0.17469853162765503,
                        -0.3906468152999878,
                        -0.22978007793426514
                    ],
                    [
                        0.2061077505350113,
                        -0.3897886276245117,
                        -0.23323161900043488,
                        -0.13274508714675903,
                        -0.35758325457572937,
                        -0.37445685267448425,
                        0.04909814894199371,
                        0.06465448439121246,
                        0.09997858107089996
                    ],
                    [
                        -0.029733365401625633,
                        0.6245517730712891,
                        -0.1130533367395401,
                        0.02499096654355526,
                        0.4192447066307068,
                        -0.20333470404148102,
                        0.2052602469921112,
                        -2.965182304382324,
                        0.02187982015311718
                    ],
                    [
                        -0.43151721358299255,
                        -0.2851385474205017,
                        -0.150105819106102,
                        0.09108596295118332,
                        0.19933480024337769,
                        -0.38675904273986816,
                        0.1096399798989296,
                        -0.09739796072244644,
                        0.15546536445617676
                    ],
                    [
                        0.22468064725399017,
                        -0.10044827312231064,
                        -0.12175366282463074,
                        -0.07608924061059952,
                        0.2108631432056427,
                        -0.1102440357208252,
                        -0.40444159507751465,
                        0.21412718296051025,
                        -0.6294144988059998
                    ],
                    [
                        0.0990164577960968,
                        -0.2204027622938156,
                        -0.16815753281116486,
                        -0.1484457552433014,
                        -0.38470137119293213,
                        -0.06268436461687088,
                        0.19124984741210938,
                        -0.2672824561595917,
                        0.10237731784582138
                    ],
                    [
                        0.05200139060616493,
                        -0.36923345923423767,
                        -0.9381376504898071,
                        0.04247479885816574,
                        -0.7931725978851318,
                        0.01970193162560463,
                        0.06176823005080223,
                        -0.3309646546840668,
                        0.48856469988822937
                    ],
                    [
                        0.32293233275413513,
                        -0.32950252294540405,
                        0.21475949883460999,
                        0.10541804879903793,
                        -0.14757800102233887,
                        -0.671093225479126,
                        0.022713547572493553,
                        -0.0241383146494627,
                        -0.20556147396564484
                    ],
                    [
                        0.0017358235782012343,
                        -0.24586433172225952,
                        -0.20574092864990234,
                        0.12012075632810593,
                        -0.11763698607683182,
                        -0.16098439693450928,
                        -0.05087893828749657,
                        0.07974085956811905,
                        0.009349149651825428
                    ],
                    [
                        0.16642913222312927,
                        -0.3908234238624573,
                        -0.13901571929454803,
                        0.10424473136663437,
                        -0.49156084656715393,
                        -0.33678677678108215,
                        0.12769855558872223,
                        0.08210638910531998,
                        -0.059973590075969696
                    ],
                    [
                        -0.22359828650951385,
                        0.16991719603538513,
                        0.061022285372018814,
                        -0.10586952418088913,
                        0.14196524024009705,
                        0.0398905947804451,
                        -0.07785716652870178,
                        -0.12287263572216034,
                        -0.16742776334285736
                    ],
                    [
                        -0.34763067960739136,
                        -0.3227900266647339,
                        0.2050490826368332,
                        -0.004399930592626333,
                        -0.19215606153011322,
                        -0.12157166004180908,
                        0.18427161872386932,
