{
'models': [
     {
        "LayerCount": 4,
        "LayerSizes": [
            4,
            5,
            5,
            3
        ],
        "Description": "Epoch1 LOL",
        "Layers": [
            {
                "ID": 0,
                "IN": 4,
                "OUT": 5,
                "weights": [
                    [
                        0.115104079246521,
                        0.33777040243148804,
                        0.0981752872467041,
                        -0.3755248188972473
                    ],
                    [
                        0.08619993925094604,
                        0.3953656554222107,
                        0.42803311347961426,
                        0.2346276044845581
                    ],
                    [
                        0.04335343837738037,
                        0.46464455127716064,
                        0.08789622783660889,
                        -0.36294591426849365
                    ],
                    [
                        -0.29180264472961426,
                        -0.4177595376968384,
                        0.09431308507919312,
                        -0.44265204668045044
                    ],
                    [
                        0.42406392097473145,
                        0.2003278136253357,
                        -0.31541115045547485,
                        0.02786993980407715
                    ]
                ]
            },
            {
                "ID": 1,
                "IN": 5,
                "OUT": 5,
                "weights": [
                    [
                        -0.11943261325359344,
                        -0.3892229199409485,
                        -0.23496785759925842,
                        -0.4268497824668884,
                        -0.19325509667396545
                    ],
                    [
                        -0.3640125095844269,
                        0.4269513487815857,
                        -0.2857525646686554,
                        0.341746062040329,
                        -0.20147643983364105
                    ],
                    [
                        0.12001611292362213,
                        0.3679214119911194,
                        -0.06844820082187653,
                        -0.3461780548095703,
                        -0.4225432872772217
                    ],
                    [
                        0.30025699734687805,
                        0.3826669752597809,
                        -0.3839554786682129,
                        -0.28924477100372314,
                        0.04985035955905914
                    ],
                    [
                        0.056723661720752716,
                        -0.1673363894224167,
                        0.41538748145103455,
                        -0.25177431106567383,
                        0.3188634216785431
                    ]
                ]
            },
            {
                "ID": 2,
                "IN": 5,
                "OUT": 3,
                "weights": [
                    [
                        0.24581092596054077,
                        -0.3376077711582184,
                        -0.3917674422264099,
                        0.42297452688217163,
                        0.20445002615451813
                    ],
                    [
                        0.3676917850971222,
                        -0.13237884640693665,
                        -0.19307047128677368,
                        0.4260064363479614,
                        0.30557945370674133
                    ],
                    [
                        -0.2505946755409241,
                        -0.23070289194583893,
                        -0.16636402904987335,
                        -0.28781071305274963,
                        0.248545303940773
                    ]
                ]
            }
        ]
    },
 {
        "LayerCount": 4,
        "LayerSizes": [
            4,
            5,
            5,
            3
        ],
        "Description": "Epoch2 XD",
        "Layers": [
            {
                "ID": 0,
                "IN": 4,
                "OUT": 5,
                "weights": [
                    [
                        0.115104079246521,
                        0.33777040243148804,
                        0.0981752872467041,
                        -0.3755248188972473
                    ],
                    [
                        0.08619993925094604,
                        0.3953656554222107,
                        0.42803311347961426,
                        0.2346276044845581
                    ],
                    [
                        0.04335343837738037,
                        0.46464455127716064,
                        0.08789622783660889,
                        -0.36294591426849365
                    ],
                    [
                        -0.29180264472961426,
                        -0.4177595376968384,
                        0.09431308507919312,
                        -0.44265204668045044
                    ],
                    [
                        0.42406392097473145,
                        0.2003278136253357,
                        -0.31541115045547485,
                        0.02786993980407715
                    ]
                ]
            },
            {
                "ID": 1,
                "IN": 5,
                "OUT": 5,
                "weights": [
                    [
                        -0.11943261325359344,
                        -0.3892229199409485,
                        -0.23496785759925842,
                        -0.4268497824668884,
                        -0.19325509667396545
                    ],
                    [
                        -0.3640125095844269,
                        0.4269513487815857,
                        -0.2857525646686554,
                        0.341746062040329,
                        -0.20147643983364105
                    ],
                    [
                        0.12001611292362213,
                        0.3679214119911194,
                        -0.06844820082187653,
                        -0.3461780548095703,
                        -0.4225432872772217
                    ],
                    [
                        0.30025699734687805,
                        0.3826669752597809,
                        -0.3839554786682129,
                        -0.28924477100372314,
                        0.04985035955905914
                    ],
                    [
                        0.056723661720752716,
                        -0.1673363894224167,
                        0.41538748145103455,
                        -0.25177431106567383,
                        0.3188634216785431
                    ]
                ]
            },
            {
                "ID": 2,
                "IN": 5,
                "OUT": 3,
                "weights": [
                    [
                        0.24581092596054077,
                        -0.3376077711582184,
                        -0.3917674422264099,
                        0.42297452688217163,
                        0.20445002615451813
                    ],
                    [
                        0.3676917850971222,
                        -0.13237884640693665,
                        -0.19307047128677368,
                        0.4260064363479614,
                        0.30557945370674133
                    ],
                    [
                        -0.2505946755409241,
                        -0.23070289194583893,
                        -0.16636402904987335,
                        -0.28781071305274963,
                        0.248545303940773
                    ]
                ]
            }
        ]
    }
    ]
}
